<?xml version="1.0" encoding="UTF-8"?>
<BIF VERSION="0.3"  xmlns="http://www.cs.ubc.ca/labs/lci/fopi/ve/XMLBIFv0_3"
	xmlns:xsi="http://www.w3.org/2001/XMLSchema-instance"
	xsi:schemaLocation="http://www.cs.ubc.ca/labs/lci/fopi/ve/XMLBIFv0_3 http://www.cs.ubc.ca/labs/lci/fopi/ve/XMLBIFv0_3/XMLBIFv0_3.xsd">
<NETWORK>
<NAME>Untitled</NAME>
<PROPERTY>short = </PROPERTY>
<PROPERTY>detailed = </PROPERTY>

<VARIABLE TYPE="nature">
	<NAME>Weather</NAME>
	<OUTCOME>wet</OUTCOME>
	<OUTCOME>dry</OUTCOME>
	<PROPERTY>position = (7420.08154296875, 5069.099609375)</PROPERTY>
</VARIABLE>

<VARIABLE TYPE="nature">
	<NAME>forecast</NAME>
	<OUTCOME>sunny</OUTCOME>
	<OUTCOME>cloudy</OUTCOME>
	<OUTCOME>rainy</OUTCOME>
	<PROPERTY>position = (7193.2978515625, 5275.4521484375)</PROPERTY>
</VARIABLE>

<VARIABLE TYPE="nature">
	<NAME>Result</NAME>
	<OUTCOME>win</OUTCOME>
	<OUTCOME>lose</OUTCOME>
	<PROPERTY>position = (7667.29736328125, 5154.90966796875)</PROPERTY>
</VARIABLE>

<VARIABLE TYPE="decision">
	<NAME>AcceptBet</NAME>
	<OUTCOME>yes</OUTCOME>
	<OUTCOME>no</OUTCOME>
	<PROPERTY>position = (7436.42626953125, 5438.900390625)</PROPERTY>
</VARIABLE>

<VARIABLE TYPE="utility">
	<NAME>U</NAME>
	<PROPERTY>position = (7828.7021484375, 5385.7802734375)</PROPERTY>
</VARIABLE>

<DEFINITION>
	<FOR>Weather</FOR>
	<TABLE>0.3 0.7</TABLE>
</DEFINITION>

<DEFINITION>
	<FOR>forecast</FOR>
	<GIVEN>Weather</GIVEN>
	<!--TABLE>0.0 0.0 1.0 0.0 0.0 1.0</TABLE-->
        <TABLE>0.15 0.25 0.6 0.5 0.4 0.1</TABLE>
</DEFINITION>

<DEFINITION>
	<FOR>Result</FOR>
	<GIVEN>Weather</GIVEN>
	<TABLE>0.6 0.4 0.25 0.75</TABLE>
</DEFINITION>

<DEFINITION>
	<FOR>AcceptBet</FOR>
	<GIVEN>forecast</GIVEN>
</DEFINITION>

<DEFINITION>
	<FOR>U</FOR>
	<GIVEN>Result</GIVEN>
	<GIVEN>AcceptBet</GIVEN>
	<TABLE>40.0 20.0 -20.0 -5.0</TABLE>
</DEFINITION>
</NETWORK>
</BIF>
